~o
<STREAMINFO> 1 39
<VECSIZE> 39<NULLD><MFCC_E_D_A><DIAGC>
~h "HELLO"
<BEGINHMM>
<NUMSTATES> 7
<STATE> 2
<MEAN> 39
 -5.936524e+00 -7.664127e+00 -1.219451e+01 -5.200946e+00 -6.520690e+00 -4.264472e+00 -7.120912e-01 -4.171035e+00 -3.002277e+00 -7.948672e-01 1.845450e+00 6.220903e-01 7.851145e-01 1.164022e-01 3.172309e-02 -6.687935e-02 -4.242924e-02 -1.063600e-01 -1.152078e-01 7.236508e-05 4.113619e-02 -5.627999e-02 5.413545e-02 2.795799e-02 -9.525873e-03 3.241231e-04 -7.187851e-03 1.079990e-02 2.006545e-02 1.474686e-02 2.115602e-02 1.189262e-02 -3.886571e-03 5.131685e-03 8.775955e-03 7.226714e-03 -3.192384e-03 -1.127372e-03 -1.021038e-03
<VARIANCE> 39
 5.815767e+01 7.302800e+01 6.076309e+01 6.153153e+01 9.301836e+01 8.686502e+01 9.051574e+01 1.292866e+02 9.566877e+01 9.438457e+01 1.382243e+02 9.059195e+01 3.806078e-02 8.343488e-01 1.224688e+00 1.459959e+00 1.926387e+00 2.419730e+00 2.774526e+00 3.166123e+00 3.278117e+00 3.191479e+00 3.133598e+00 2.640568e+00 2.618160e+00 1.228593e-03 1.095071e-01 1.715205e-01 1.879839e-01 2.677391e-01 3.512416e-01 4.260411e-01 4.257373e-01 4.907501e-01 4.900196e-01 4.844684e-01 4.456061e-01 4.524814e-01 1.018400e-04
<GCONST> 1.020705e+02
<STATE> 3
<MEAN> 39
 -5.936524e+00 -7.664127e+00 -1.219451e+01 -5.200946e+00 -6.520690e+00 -4.264472e+00 -7.120912e-01 -4.171035e+00 -3.002277e+00 -7.948672e-01 1.845450e+00 6.220903e-01 7.851145e-01 1.164022e-01 3.172309e-02 -6.687935e-02 -4.242924e-02 -1.063600e-01 -1.152078e-01 7.236508e-05 4.113619e-02 -5.627999e-02 5.413545e-02 2.795799e-02 -9.525873e-03 3.241231e-04 -7.187851e-03 1.079990e-02 2.006545e-02 1.474686e-02 2.115602e-02 1.189262e-02 -3.886571e-03 5.131685e-03 8.775955e-03 7.226714e-03 -3.192384e-03 -1.127372e-03 -1.021038e-03
<VARIANCE> 39
 5.815767e+01 7.302800e+01 6.076309e+01 6.153153e+01 9.301836e+01 8.686502e+01 9.051574e+01 1.292866e+02 9.566877e+01 9.438457e+01 1.382243e+02 9.059195e+01 3.806078e-02 8.343488e-01 1.224688e+00 1.459959e+00 1.926387e+00 2.419730e+00 2.774526e+00 3.166123e+00 3.278117e+00 3.191479e+00 3.133598e+00 2.640568e+00 2.618160e+00 1.228593e-03 1.095071e-01 1.715205e-01 1.879839e-01 2.677391e-01 3.512416e-01 4.260411e-01 4.257373e-01 4.907501e-01 4.900196e-01 4.844684e-01 4.456061e-01 4.524814e-01 1.018400e-04
<GCONST> 1.020705e+02
<STATE> 4
<MEAN> 39
 -5.936524e+00 -7.664127e+00 -1.219451e+01 -5.200946e+00 -6.520690e+00 -4.264472e+00 -7.120912e-01 -4.171035e+00 -3.002277e+00 -7.948672e-01 1.845450e+00 6.220903e-01 7.851145e-01 1.164022e-01 3.172309e-02 -6.687935e-02 -4.242924e-02 -1.063600e-01 -1.152078e-01 7.236508e-05 4.113619e-02 -5.627999e-02 5.413545e-02 2.795799e-02 -9.525873e-03 3.241231e-04 -7.187851e-03 1.079990e-02 2.006545e-02 1.474686e-02 2.115602e-02 1.189262e-02 -3.886571e-03 5.131685e-03 8.775955e-03 7.226714e-03 -3.192384e-03 -1.127372e-03 -1.021038e-03
<VARIANCE> 39
 5.815767e+01 7.302800e+01 6.076309e+01 6.153153e+01 9.301836e+01 8.686502e+01 9.051574e+01 1.292866e+02 9.566877e+01 9.438457e+01 1.382243e+02 9.059195e+01 3.806078e-02 8.343488e-01 1.224688e+00 1.459959e+00 1.926387e+00 2.419730e+00 2.774526e+00 3.166123e+00 3.278117e+00 3.191479e+00 3.133598e+00 2.640568e+00 2.618160e+00 1.228593e-03 1.095071e-01 1.715205e-01 1.879839e-01 2.677391e-01 3.512416e-01 4.260411e-01 4.257373e-01 4.907501e-01 4.900196e-01 4.844684e-01 4.456061e-01 4.524814e-01 1.018400e-04
<GCONST> 1.020705e+02
<STATE> 5
<MEAN> 39
 -5.936524e+00 -7.664127e+00 -1.219451e+01 -5.200946e+00 -6.520690e+00 -4.264472e+00 -7.120912e-01 -4.171035e+00 -3.002277e+00 -7.948672e-01 1.845450e+00 6.220903e-01 7.851145e-01 1.164022e-01 3.172309e-02 -6.687935e-02 -4.242924e-02 -1.063600e-01 -1.152078e-01 7.236508e-05 4.113619e-02 -5.627999e-02 5.413545e-02 2.795799e-02 -9.525873e-03 3.241231e-04 -7.187851e-03 1.079990e-02 2.006545e-02 1.474686e-02 2.115602e-02 1.189262e-02 -3.886571e-03 5.131685e-03 8.775955e-03 7.226714e-03 -3.192384e-03 -1.127372e-03 -1.021038e-03
<VARIANCE> 39
 5.815767e+01 7.302800e+01 6.076309e+01 6.153153e+01 9.301836e+01 8.686502e+01 9.051574e+01 1.292866e+02 9.566877e+01 9.438457e+01 1.382243e+02 9.059195e+01 3.806078e-02 8.343488e-01 1.224688e+00 1.459959e+00 1.926387e+00 2.419730e+00 2.774526e+00 3.166123e+00 3.278117e+00 3.191479e+00 3.133598e+00 2.640568e+00 2.618160e+00 1.228593e-03 1.095071e-01 1.715205e-01 1.879839e-01 2.677391e-01 3.512416e-01 4.260411e-01 4.257373e-01 4.907501e-01 4.900196e-01 4.844684e-01 4.456061e-01 4.524814e-01 1.018400e-04
<GCONST> 1.020705e+02
<STATE> 6
<MEAN> 39
 -5.936524e+00 -7.664127e+00 -1.219451e+01 -5.200946e+00 -6.520690e+00 -4.264472e+00 -7.120912e-01 -4.171035e+00 -3.002277e+00 -7.948672e-01 1.845450e+00 6.220903e-01 7.851145e-01 1.164022e-01 3.172309e-02 -6.687935e-02 -4.242924e-02 -1.063600e-01 -1.152078e-01 7.236508e-05 4.113619e-02 -5.627999e-02 5.413545e-02 2.795799e-02 -9.525873e-03 3.241231e-04 -7.187851e-03 1.079990e-02 2.006545e-02 1.474686e-02 2.115602e-02 1.189262e-02 -3.886571e-03 5.131685e-03 8.775955e-03 7.226714e-03 -3.192384e-03 -1.127372e-03 -1.021038e-03
<VARIANCE> 39
 5.815767e+01 7.302800e+01 6.076309e+01 6.153153e+01 9.301836e+01 8.686502e+01 9.051574e+01 1.292866e+02 9.566877e+01 9.438457e+01 1.382243e+02 9.059195e+01 3.806078e-02 8.343488e-01 1.224688e+00 1.459959e+00 1.926387e+00 2.419730e+00 2.774526e+00 3.166123e+00 3.278117e+00 3.191479e+00 3.133598e+00 2.640568e+00 2.618160e+00 1.228593e-03 1.095071e-01 1.715205e-01 1.879839e-01 2.677391e-01 3.512416e-01 4.260411e-01 4.257373e-01 4.907501e-01 4.900196e-01 4.844684e-01 4.456061e-01 4.524814e-01 1.018400e-04
<GCONST> 1.020705e+02
<TRANSP> 7
 0.000000e+00 1.000000e+00 0.000000e+00 0.000000e+00 0.000000e+00 0.000000e+00 0.000000e+00
 0.000000e+00 6.000000e-01 4.000000e-01 0.000000e+00 0.000000e+00 0.000000e+00 0.000000e+00
 0.000000e+00 0.000000e+00 6.000000e-01 4.000000e-01 0.000000e+00 0.000000e+00 0.000000e+00
 0.000000e+00 0.000000e+00 0.000000e+00 6.000000e-01 4.000000e-01 0.000000e+00 0.000000e+00
 0.000000e+00 0.000000e+00 0.000000e+00 0.000000e+00 6.000000e-01 4.000000e-01 0.000000e+00
 0.000000e+00 0.000000e+00 0.000000e+00 0.000000e+00 0.000000e+00 6.000000e-01 4.000000e-01
 0.000000e+00 0.000000e+00 0.000000e+00 0.000000e+00 0.000000e+00 0.000000e+00 0.000000e+00
<ENDHMM>
