~o
<STREAMINFO> 1 39
<VECSIZE> 39<NULLD><MFCC_E_D_A><DIAGC>
~h "NO"
<BEGINHMM>
<NUMSTATES> 7
<STATE> 2
<MEAN> 39
 -9.828645e+00 -7.810974e+00 -1.278784e+01 -1.921093e-01 -7.980072e+00 -2.767607e+00 -1.712365e+00 -3.798836e+00 -1.542642e+00 -1.935180e+00 3.264576e+00 4.233300e-01 7.628931e-01 6.840232e-02 -9.786515e-02 -4.683119e-02 3.397446e-02 -1.362488e-02 1.020123e-02 1.077550e-02 4.160535e-02 -1.509358e-04 9.358088e-03 -4.402260e-02 -2.285317e-02 5.861011e-04 -1.459206e-02 3.474141e-03 8.391335e-03 1.975504e-02 1.252424e-03 7.782666e-03 3.468374e-03 2.235064e-03 5.342154e-03 4.187951e-03 -2.545356e-03 1.451040e-02 -1.083592e-03
<VARIANCE> 39
 7.580059e+01 9.423688e+01 1.208603e+02 9.955184e+01 7.308397e+01 1.028206e+02 9.937405e+01 1.347491e+02 1.237845e+02 2.008705e+02 1.257151e+02 1.401175e+02 8.056842e-02 1.599991e+00 1.438678e+00 1.875412e+00 2.531273e+00 2.201805e+00 3.798585e+00 3.876414e+00 4.818427e+00 6.170947e+00 7.033449e+00 6.307772e+00 6.004973e+00 1.976279e-03 1.856740e-01 1.867665e-01 2.422407e-01 3.333278e-01 3.569342e-01 5.565900e-01 6.152257e-01 7.747538e-01 1.011746e+00 1.200071e+00 1.114645e+00 1.022649e+00 1.580696e-04
<GCONST> 1.177106e+02
<STATE> 3
<MEAN> 39
 -9.828645e+00 -7.810974e+00 -1.278784e+01 -1.921093e-01 -7.980072e+00 -2.767607e+00 -1.712365e+00 -3.798836e+00 -1.542642e+00 -1.935180e+00 3.264576e+00 4.233300e-01 7.628931e-01 6.840232e-02 -9.786515e-02 -4.683119e-02 3.397446e-02 -1.362488e-02 1.020123e-02 1.077550e-02 4.160535e-02 -1.509358e-04 9.358088e-03 -4.402260e-02 -2.285317e-02 5.861011e-04 -1.459206e-02 3.474141e-03 8.391335e-03 1.975504e-02 1.252424e-03 7.782666e-03 3.468374e-03 2.235064e-03 5.342154e-03 4.187951e-03 -2.545356e-03 1.451040e-02 -1.083592e-03
<VARIANCE> 39
 7.580059e+01 9.423688e+01 1.208603e+02 9.955184e+01 7.308397e+01 1.028206e+02 9.937405e+01 1.347491e+02 1.237845e+02 2.008705e+02 1.257151e+02 1.401175e+02 8.056842e-02 1.599991e+00 1.438678e+00 1.875412e+00 2.531273e+00 2.201805e+00 3.798585e+00 3.876414e+00 4.818427e+00 6.170947e+00 7.033449e+00 6.307772e+00 6.004973e+00 1.976279e-03 1.856740e-01 1.867665e-01 2.422407e-01 3.333278e-01 3.569342e-01 5.565900e-01 6.152257e-01 7.747538e-01 1.011746e+00 1.200071e+00 1.114645e+00 1.022649e+00 1.580696e-04
<GCONST> 1.177106e+02
<STATE> 4
<MEAN> 39
 -9.828645e+00 -7.810974e+00 -1.278784e+01 -1.921093e-01 -7.980072e+00 -2.767607e+00 -1.712365e+00 -3.798836e+00 -1.542642e+00 -1.935180e+00 3.264576e+00 4.233300e-01 7.628931e-01 6.840232e-02 -9.786515e-02 -4.683119e-02 3.397446e-02 -1.362488e-02 1.020123e-02 1.077550e-02 4.160535e-02 -1.509358e-04 9.358088e-03 -4.402260e-02 -2.285317e-02 5.861011e-04 -1.459206e-02 3.474141e-03 8.391335e-03 1.975504e-02 1.252424e-03 7.782666e-03 3.468374e-03 2.235064e-03 5.342154e-03 4.187951e-03 -2.545356e-03 1.451040e-02 -1.083592e-03
<VARIANCE> 39
 7.580059e+01 9.423688e+01 1.208603e+02 9.955184e+01 7.308397e+01 1.028206e+02 9.937405e+01 1.347491e+02 1.237845e+02 2.008705e+02 1.257151e+02 1.401175e+02 8.056842e-02 1.599991e+00 1.438678e+00 1.875412e+00 2.531273e+00 2.201805e+00 3.798585e+00 3.876414e+00 4.818427e+00 6.170947e+00 7.033449e+00 6.307772e+00 6.004973e+00 1.976279e-03 1.856740e-01 1.867665e-01 2.422407e-01 3.333278e-01 3.569342e-01 5.565900e-01 6.152257e-01 7.747538e-01 1.011746e+00 1.200071e+00 1.114645e+00 1.022649e+00 1.580696e-04
<GCONST> 1.177106e+02
<STATE> 5
<MEAN> 39
 -9.828645e+00 -7.810974e+00 -1.278784e+01 -1.921093e-01 -7.980072e+00 -2.767607e+00 -1.712365e+00 -3.798836e+00 -1.542642e+00 -1.935180e+00 3.264576e+00 4.233300e-01 7.628931e-01 6.840232e-02 -9.786515e-02 -4.683119e-02 3.397446e-02 -1.362488e-02 1.020123e-02 1.077550e-02 4.160535e-02 -1.509358e-04 9.358088e-03 -4.402260e-02 -2.285317e-02 5.861011e-04 -1.459206e-02 3.474141e-03 8.391335e-03 1.975504e-02 1.252424e-03 7.782666e-03 3.468374e-03 2.235064e-03 5.342154e-03 4.187951e-03 -2.545356e-03 1.451040e-02 -1.083592e-03
<VARIANCE> 39
 7.580059e+01 9.423688e+01 1.208603e+02 9.955184e+01 7.308397e+01 1.028206e+02 9.937405e+01 1.347491e+02 1.237845e+02 2.008705e+02 1.257151e+02 1.401175e+02 8.056842e-02 1.599991e+00 1.438678e+00 1.875412e+00 2.531273e+00 2.201805e+00 3.798585e+00 3.876414e+00 4.818427e+00 6.170947e+00 7.033449e+00 6.307772e+00 6.004973e+00 1.976279e-03 1.856740e-01 1.867665e-01 2.422407e-01 3.333278e-01 3.569342e-01 5.565900e-01 6.152257e-01 7.747538e-01 1.011746e+00 1.200071e+00 1.114645e+00 1.022649e+00 1.580696e-04
<GCONST> 1.177106e+02
<STATE> 6
<MEAN> 39
 -9.828645e+00 -7.810974e+00 -1.278784e+01 -1.921093e-01 -7.980072e+00 -2.767607e+00 -1.712365e+00 -3.798836e+00 -1.542642e+00 -1.935180e+00 3.264576e+00 4.233300e-01 7.628931e-01 6.840232e-02 -9.786515e-02 -4.683119e-02 3.397446e-02 -1.362488e-02 1.020123e-02 1.077550e-02 4.160535e-02 -1.509358e-04 9.358088e-03 -4.402260e-02 -2.285317e-02 5.861011e-04 -1.459206e-02 3.474141e-03 8.391335e-03 1.975504e-02 1.252424e-03 7.782666e-03 3.468374e-03 2.235064e-03 5.342154e-03 4.187951e-03 -2.545356e-03 1.451040e-02 -1.083592e-03
<VARIANCE> 39
 7.580059e+01 9.423688e+01 1.208603e+02 9.955184e+01 7.308397e+01 1.028206e+02 9.937405e+01 1.347491e+02 1.237845e+02 2.008705e+02 1.257151e+02 1.401175e+02 8.056842e-02 1.599991e+00 1.438678e+00 1.875412e+00 2.531273e+00 2.201805e+00 3.798585e+00 3.876414e+00 4.818427e+00 6.170947e+00 7.033449e+00 6.307772e+00 6.004973e+00 1.976279e-03 1.856740e-01 1.867665e-01 2.422407e-01 3.333278e-01 3.569342e-01 5.565900e-01 6.152257e-01 7.747538e-01 1.011746e+00 1.200071e+00 1.114645e+00 1.022649e+00 1.580696e-04
<GCONST> 1.177106e+02
<TRANSP> 7
 0.000000e+00 1.000000e+00 0.000000e+00 0.000000e+00 0.000000e+00 0.000000e+00 0.000000e+00
 0.000000e+00 6.000000e-01 4.000000e-01 0.000000e+00 0.000000e+00 0.000000e+00 0.000000e+00
 0.000000e+00 0.000000e+00 6.000000e-01 4.000000e-01 0.000000e+00 0.000000e+00 0.000000e+00
 0.000000e+00 0.000000e+00 0.000000e+00 6.000000e-01 4.000000e-01 0.000000e+00 0.000000e+00
 0.000000e+00 0.000000e+00 0.000000e+00 0.000000e+00 6.000000e-01 4.000000e-01 0.000000e+00
 0.000000e+00 0.000000e+00 0.000000e+00 0.000000e+00 0.000000e+00 6.000000e-01 4.000000e-01
 0.000000e+00 0.000000e+00 0.000000e+00 0.000000e+00 0.000000e+00 0.000000e+00 0.000000e+00
<ENDHMM>
