~o
<STREAMINFO> 1 39
<VECSIZE> 39<NULLD><MFCC_E_D_A><DIAGC>
~h "YES"
<BEGINHMM>
<NUMSTATES> 7
<STATE> 2
<MEAN> 39
 -1.367150e+01 -1.724120e+00 -5.737281e+00 -8.102792e+00 -3.238292e+00 -1.996110e+00 -4.909705e+00 -4.062309e+00 -1.408742e+00 -4.190329e+00 2.123300e+00 1.098139e+00 5.854589e-01 -1.036402e-01 -1.809054e-01 1.094029e-01 1.236530e-01 9.716537e-02 2.461122e-01 6.102854e-02 6.616839e-02 7.621370e-02 -1.762648e-02 3.419682e-02 2.805016e-03 -4.465374e-03 -3.486317e-03 -1.265853e-02 5.035384e-03 2.664016e-02 1.770979e-02 1.489388e-02 -1.129292e-02 -1.108211e-02 -9.853058e-03 -4.411706e-03 -4.462549e-03 1.733489e-02 -8.481756e-04
<VARIANCE> 39
 4.703967e+01 9.309063e+01 5.167134e+01 1.264591e+02 7.149801e+01 1.271018e+02 1.049658e+02 8.513196e+01 7.269530e+01 6.145229e+01 1.033965e+02 6.328698e+01 1.159132e-01 8.928604e-01 2.221699e+00 1.299550e+00 3.026201e+00 3.356123e+00 3.406741e+00 3.496526e+00 3.579629e+00 3.976408e+00 3.600001e+00 4.377233e+00 3.104467e+00 1.517871e-03 1.244549e-01 2.396686e-01 2.014516e-01 4.181278e-01 5.374687e-01 5.494644e-01 5.488299e-01 6.525587e-01 6.644388e-01 6.233308e-01 7.045443e-01 5.589030e-01 1.197094e-04
<GCONST> 1.088160e+02
<STATE> 3
<MEAN> 39
 -1.367150e+01 -1.724120e+00 -5.737281e+00 -8.102792e+00 -3.238292e+00 -1.996110e+00 -4.909705e+00 -4.062309e+00 -1.408742e+00 -4.190329e+00 2.123300e+00 1.098139e+00 5.854589e-01 -1.036402e-01 -1.809054e-01 1.094029e-01 1.236530e-01 9.716537e-02 2.461122e-01 6.102854e-02 6.616839e-02 7.621370e-02 -1.762648e-02 3.419682e-02 2.805016e-03 -4.465374e-03 -3.486317e-03 -1.265853e-02 5.035384e-03 2.664016e-02 1.770979e-02 1.489388e-02 -1.129292e-02 -1.108211e-02 -9.853058e-03 -4.411706e-03 -4.462549e-03 1.733489e-02 -8.481756e-04
<VARIANCE> 39
 4.703967e+01 9.309063e+01 5.167134e+01 1.264591e+02 7.149801e+01 1.271018e+02 1.049658e+02 8.513196e+01 7.269530e+01 6.145229e+01 1.033965e+02 6.328698e+01 1.159132e-01 8.928604e-01 2.221699e+00 1.299550e+00 3.026201e+00 3.356123e+00 3.406741e+00 3.496526e+00 3.579629e+00 3.976408e+00 3.600001e+00 4.377233e+00 3.104467e+00 1.517871e-03 1.244549e-01 2.396686e-01 2.014516e-01 4.181278e-01 5.374687e-01 5.494644e-01 5.488299e-01 6.525587e-01 6.644388e-01 6.233308e-01 7.045443e-01 5.589030e-01 1.197094e-04
<GCONST> 1.088160e+02
<STATE> 4
<MEAN> 39
 -1.367150e+01 -1.724120e+00 -5.737281e+00 -8.102792e+00 -3.238292e+00 -1.996110e+00 -4.909705e+00 -4.062309e+00 -1.408742e+00 -4.190329e+00 2.123300e+00 1.098139e+00 5.854589e-01 -1.036402e-01 -1.809054e-01 1.094029e-01 1.236530e-01 9.716537e-02 2.461122e-01 6.102854e-02 6.616839e-02 7.621370e-02 -1.762648e-02 3.419682e-02 2.805016e-03 -4.465374e-03 -3.486317e-03 -1.265853e-02 5.035384e-03 2.664016e-02 1.770979e-02 1.489388e-02 -1.129292e-02 -1.108211e-02 -9.853058e-03 -4.411706e-03 -4.462549e-03 1.733489e-02 -8.481756e-04
<VARIANCE> 39
 4.703967e+01 9.309063e+01 5.167134e+01 1.264591e+02 7.149801e+01 1.271018e+02 1.049658e+02 8.513196e+01 7.269530e+01 6.145229e+01 1.033965e+02 6.328698e+01 1.159132e-01 8.928604e-01 2.221699e+00 1.299550e+00 3.026201e+00 3.356123e+00 3.406741e+00 3.496526e+00 3.579629e+00 3.976408e+00 3.600001e+00 4.377233e+00 3.104467e+00 1.517871e-03 1.244549e-01 2.396686e-01 2.014516e-01 4.181278e-01 5.374687e-01 5.494644e-01 5.488299e-01 6.525587e-01 6.644388e-01 6.233308e-01 7.045443e-01 5.589030e-01 1.197094e-04
<GCONST> 1.088160e+02
<STATE> 5
<MEAN> 39
 -1.367150e+01 -1.724120e+00 -5.737281e+00 -8.102792e+00 -3.238292e+00 -1.996110e+00 -4.909705e+00 -4.062309e+00 -1.408742e+00 -4.190329e+00 2.123300e+00 1.098139e+00 5.854589e-01 -1.036402e-01 -1.809054e-01 1.094029e-01 1.236530e-01 9.716537e-02 2.461122e-01 6.102854e-02 6.616839e-02 7.621370e-02 -1.762648e-02 3.419682e-02 2.805016e-03 -4.465374e-03 -3.486317e-03 -1.265853e-02 5.035384e-03 2.664016e-02 1.770979e-02 1.489388e-02 -1.129292e-02 -1.108211e-02 -9.853058e-03 -4.411706e-03 -4.462549e-03 1.733489e-02 -8.481756e-04
<VARIANCE> 39
 4.703967e+01 9.309063e+01 5.167134e+01 1.264591e+02 7.149801e+01 1.271018e+02 1.049658e+02 8.513196e+01 7.269530e+01 6.145229e+01 1.033965e+02 6.328698e+01 1.159132e-01 8.928604e-01 2.221699e+00 1.299550e+00 3.026201e+00 3.356123e+00 3.406741e+00 3.496526e+00 3.579629e+00 3.976408e+00 3.600001e+00 4.377233e+00 3.104467e+00 1.517871e-03 1.244549e-01 2.396686e-01 2.014516e-01 4.181278e-01 5.374687e-01 5.494644e-01 5.488299e-01 6.525587e-01 6.644388e-01 6.233308e-01 7.045443e-01 5.589030e-01 1.197094e-04
<GCONST> 1.088160e+02
<STATE> 6
<MEAN> 39
 -1.367150e+01 -1.724120e+00 -5.737281e+00 -8.102792e+00 -3.238292e+00 -1.996110e+00 -4.909705e+00 -4.062309e+00 -1.408742e+00 -4.190329e+00 2.123300e+00 1.098139e+00 5.854589e-01 -1.036402e-01 -1.809054e-01 1.094029e-01 1.236530e-01 9.716537e-02 2.461122e-01 6.102854e-02 6.616839e-02 7.621370e-02 -1.762648e-02 3.419682e-02 2.805016e-03 -4.465374e-03 -3.486317e-03 -1.265853e-02 5.035384e-03 2.664016e-02 1.770979e-02 1.489388e-02 -1.129292e-02 -1.108211e-02 -9.853058e-03 -4.411706e-03 -4.462549e-03 1.733489e-02 -8.481756e-04
<VARIANCE> 39
 4.703967e+01 9.309063e+01 5.167134e+01 1.264591e+02 7.149801e+01 1.271018e+02 1.049658e+02 8.513196e+01 7.269530e+01 6.145229e+01 1.033965e+02 6.328698e+01 1.159132e-01 8.928604e-01 2.221699e+00 1.299550e+00 3.026201e+00 3.356123e+00 3.406741e+00 3.496526e+00 3.579629e+00 3.976408e+00 3.600001e+00 4.377233e+00 3.104467e+00 1.517871e-03 1.244549e-01 2.396686e-01 2.014516e-01 4.181278e-01 5.374687e-01 5.494644e-01 5.488299e-01 6.525587e-01 6.644388e-01 6.233308e-01 7.045443e-01 5.589030e-01 1.197094e-04
<GCONST> 1.088160e+02
<TRANSP> 7
 0.000000e+00 1.000000e+00 0.000000e+00 0.000000e+00 0.000000e+00 0.000000e+00 0.000000e+00
 0.000000e+00 6.000000e-01 4.000000e-01 0.000000e+00 0.000000e+00 0.000000e+00 0.000000e+00
 0.000000e+00 0.000000e+00 6.000000e-01 4.000000e-01 0.000000e+00 0.000000e+00 0.000000e+00
 0.000000e+00 0.000000e+00 0.000000e+00 6.000000e-01 4.000000e-01 0.000000e+00 0.000000e+00
 0.000000e+00 0.000000e+00 0.000000e+00 0.000000e+00 6.000000e-01 4.000000e-01 0.000000e+00
 0.000000e+00 0.000000e+00 0.000000e+00 0.000000e+00 0.000000e+00 6.000000e-01 4.000000e-01
 0.000000e+00 0.000000e+00 0.000000e+00 0.000000e+00 0.000000e+00 0.000000e+00 0.000000e+00
<ENDHMM>
