~o
<STREAMINFO> 1 39
<VECSIZE> 39<NULLD><MFCC_E_D_A><DIAGC>
~h "HELLO"
<BEGINHMM>
<NUMSTATES> 7
<STATE> 2
<MEAN> 39
 -1.208444e+01 -8.770866e+00 -7.728899e+00 -3.030391e+00 -7.534823e-01 1.388513e+00 -2.149811e+00 -4.079344e+00 -2.617645e+00 1.307123e+00 1.486331e+00 3.600691e-01 6.289425e-01 4.019837e-01 -4.125722e-01 -9.395670e-01 -9.398795e-01 -8.505352e-01 -6.251324e-01 5.245877e-03 -5.637898e-01 -8.144301e-01 -4.213257e-01 -1.308878e-01 3.349941e-03 4.651583e-02 2.877718e-02 -5.622242e-03 2.100196e-02 -2.029630e-02 3.205036e-02 1.390789e-02 9.927948e-02 1.408485e-02 2.330558e-02 -8.729932e-02 -4.409548e-02 -1.595038e-02 3.352692e-04
<VARIANCE> 39
 5.192993e+01 5.488050e+01 4.352532e+01 4.390004e+01 1.441103e+02 1.277313e+02 8.716357e+01 1.031720e+02 1.164656e+02 1.061945e+02 1.020779e+02 4.636869e+01 5.319357e-02 2.263235e+00 1.913528e+00 2.417341e+00 3.633780e+00 5.297701e+00 7.274269e+00 6.349654e+00 5.654848e+00 7.307706e+00 6.557923e+00 5.687119e+00 4.902614e+00 2.099134e-03 3.246814e-01 3.219386e-01 3.958420e-01 5.002320e-01 7.965301e-01 1.101415e+00 9.197015e-01 9.903838e-01 1.138236e+00 9.998464e-01 9.184120e-01 9.117366e-01 3.108805e-04
<GCONST> 1.207399e+02
<STATE> 3
<MEAN> 39
 -6.560598e+00 -2.506549e+00 -1.086752e+01 -1.100102e+01 -9.307982e+00 -3.671674e+00 -1.779488e-01 1.521784e+00 -3.713525e+00 -3.198456e+00 -7.712726e-01 -3.156438e+00 8.623582e-01 8.766147e-02 -8.743187e-02 -8.475314e-02 5.610535e-02 -2.108341e-01 -1.139034e-01 3.900102e-01 2.284732e-02 3.042579e-02 -1.550666e-01 -8.316623e-02 2.054336e-02 2.766845e-03 -2.297727e-02 -1.148016e-02 6.814681e-02 1.019080e-01 1.145942e-01 1.777477e-02 -7.715832e-02 -7.293347e-02 -1.119405e-02 7.504153e-02 4.741000e-02 4.027303e-02 -2.794652e-03
<VARIANCE> 39
 6.593584e+01 7.470316e+01 7.220276e+01 5.065820e+01 1.329939e+02 1.133400e+02 1.341041e+02 1.263273e+02 8.220576e+01 5.259085e+01 7.752059e+01 4.771593e+01 1.237380e-02 5.801699e-01 2.825958e+00 1.262799e+00 1.712630e+00 3.784216e+00 2.943634e+00 5.088565e+00 5.491920e+00 3.467547e+00 3.274753e+00 2.487481e+00 2.595752e+00 3.652045e-04 7.954182e-02 3.833123e-01 1.825546e-01 3.224812e-01 4.912138e-01 5.285422e-01 6.146874e-01 8.399975e-01 5.289025e-01 5.366943e-01 4.671501e-01 4.282985e-01 7.663151e-05
<GCONST> 1.026468e+02
<STATE> 4
<MEAN> 39
 -8.644753e+00 -1.254180e+01 -1.162369e+01 -4.209923e+00 -8.597257e+00 -2.359689e+00 2.068260e+00 -1.070914e+01 -7.755069e+00 -6.311321e+00 1.619803e+00 3.111761e-01 9.117735e-01 1.137215e-01 -3.499177e-02 -4.180206e-02 2.208327e-01 -5.771804e-02 -2.025557e-01 -4.441259e-02 9.620817e-02 1.829608e-02 3.630539e-01 3.539837e-02 -9.095860e-02 -1.148306e-03 4.183198e-02 7.405937e-02 -7.949597e-03 -3.928514e-02 -3.736077e-02 -4.234188e-02 -1.031742e-01 7.466131e-02 7.542949e-02 4.350267e-02 -8.846766e-03 1.194467e-03 -9.305241e-04
<VARIANCE> 39
 4.813179e+01 3.864707e+01 2.877115e+01 7.319665e+01 5.315399e+01 7.244601e+01 1.079979e+02 9.698386e+01 1.163347e+02 6.965735e+01 1.533234e+02 1.094653e+02 5.188322e-03 4.849910e-01 5.716286e-01 8.233823e-01 1.522076e+00 1.130860e+00 1.885624e+00 2.030915e+00 2.070494e+00 1.716724e+00 2.521199e+00 2.240678e+00 2.062307e+00 1.799215e-04 6.872683e-02 8.898170e-02 1.267359e-01 2.170750e-01 2.260955e-01 3.520222e-01 3.101128e-01 3.337992e-01 3.212669e-01 4.202015e-01 3.744521e-01 3.443668e-01 1.862918e-05
<GCONST> 8.491623e+01
<STATE> 5
<MEAN> 39
 -3.547739e+00 -1.048698e+01 -1.851404e+01 -3.897906e+00 -7.583254e+00 -7.907218e+00 -1.509072e+00 -4.495367e+00 1.988316e+00 4.443018e+00 7.367323e+00 6.021277e+00 8.394853e-01 2.681518e-01 1.955569e-01 -9.109561e-02 -4.256105e-02 2.336565e-02 -1.087976e-01 -2.853965e-01 1.219049e-01 1.163032e-01 6.402972e-02 -5.824840e-03 6.311295e-02 -3.958740e-03 -3.679872e-03 1.785133e-02 1.441301e-02 -1.068842e-02 -2.051627e-02 1.788397e-02 8.000961e-03 -1.583912e-02 -1.004585e-02 -5.184150e-04 5.753600e-03 -1.257842e-02 -3.154158e-04
<VARIANCE> 39
 3.290505e+01 5.250742e+01 3.695230e+01 2.565549e+01 6.264093e+01 5.227770e+01 5.731241e+01 1.571759e+02 5.390860e+01 1.017974e+02 1.820475e+02 9.622141e+01 1.912312e-02 1.403987e-01 2.437295e-01 3.863217e-01 4.186121e-01 6.550648e-01 8.106433e-01 9.976895e-01 1.216485e+00 1.026434e+00 1.075626e+00 8.924305e-01 1.046311e+00 5.382906e-05 1.866455e-02 3.156618e-02 5.437381e-02 6.504509e-02 9.417215e-02 8.883650e-02 9.812818e-02 1.363289e-01 1.125381e-01 1.627240e-01 1.668108e-01 1.503779e-01 4.184382e-06
<GCONST> 5.992608e+01
<STATE> 6
<MEAN> 39
 -1.058363e+00 -2.954442e+00 -9.776110e+00 -4.312349e+00 -4.773327e+00 -6.500327e+00 -2.155611e+00 -1.874757e+00 -3.422493e+00 -4.580222e-01 -1.771648e+00 -1.848315e+00 6.335841e-01 -2.280672e-01 3.226788e-01 5.546703e-01 2.217110e-01 2.987639e-01 3.207812e-01 3.898438e-02 3.260170e-01 1.203381e-01 2.277101e-01 2.631416e-01 -4.222984e-02 -2.732184e-02 -7.383804e-02 -3.294256e-02 1.432153e-02 5.056840e-02 4.307176e-02 5.518468e-02 7.663862e-02 1.665338e-02 -3.229498e-02 -1.371299e-02 -2.209473e-02 -1.527036e-02 -1.359176e-03
<VARIANCE> 39
 3.073842e+01 6.400516e+01 5.639637e+01 7.633140e+01 6.155056e+01 4.429965e+01 6.311427e+01 7.418999e+01 6.614692e+01 6.773322e+01 9.490544e+01 7.975510e+01 4.026067e-02 1.015877e+00 9.243574e-01 1.940430e+00 2.363236e+00 2.052716e+00 2.308903e+00 2.769150e+00 3.026434e+00 3.643923e+00 3.310726e+00 2.992027e+00 3.417546e+00 1.523890e-03 1.242137e-01 1.271788e-01 2.624699e-01 3.326488e-01 3.351405e-01 3.291954e-01 3.898263e-01 4.066697e-01 6.085104e-01 5.062090e-01 4.891132e-01 6.112153e-01 1.722318e-04
<GCONST> 9.990497e+01
<TRANSP> 7
 0.000000e+00 1.000000e+00 0.000000e+00 0.000000e+00 0.000000e+00 0.000000e+00 0.000000e+00
 0.000000e+00 8.860429e-01 1.139571e-01 0.000000e+00 0.000000e+00 0.000000e+00 0.000000e+00
 0.000000e+00 0.000000e+00 9.068618e-01 9.313820e-02 0.000000e+00 0.000000e+00 0.000000e+00
 0.000000e+00 0.000000e+00 0.000000e+00 9.242346e-01 7.576545e-02 0.000000e+00 0.000000e+00
 0.000000e+00 0.000000e+00 0.000000e+00 0.000000e+00 9.310083e-01 6.899169e-02 0.000000e+00
 0.000000e+00 0.000000e+00 0.000000e+00 0.000000e+00 0.000000e+00 9.210253e-01 7.897471e-02
 0.000000e+00 0.000000e+00 0.000000e+00 0.000000e+00 0.000000e+00 0.000000e+00 0.000000e+00
<ENDHMM>
