~o
<STREAMINFO> 1 39
<VECSIZE> 39<NULLD><MFCC_E_D_A><DIAGC>
~h "NO"
<BEGINHMM>
<NUMSTATES> 7
<STATE> 2
<MEAN> 39
 -1.509830e+01 -5.230994e+00 -7.167378e+00 -4.998163e-01 -3.076858e+00 3.433796e+00 4.730004e+00 -1.428982e+00 -9.091872e-01 -5.950949e+00 5.167543e+00 1.813557e+00 4.875272e-01 5.161284e-01 -3.340205e-01 -2.549873e-02 -3.780588e-01 -4.398980e-01 -8.066608e-01 -3.171475e-01 -3.283752e-01 -3.669270e-05 3.027217e-01 -3.087196e-02 -5.493917e-01 5.507223e-02 -7.910524e-02 -4.406665e-02 -2.983016e-02 3.398205e-02 3.323327e-02 5.376885e-02 1.957138e-02 -7.337919e-03 3.925176e-02 -2.648711e-02 -4.730606e-02 -8.010663e-03 -5.122991e-04
<VARIANCE> 39
 8.576179e+01 6.401698e+01 5.686242e+01 9.902102e+01 7.711041e+01 1.453871e+02 1.471518e+02 1.767150e+02 2.300478e+02 2.462698e+02 1.810197e+02 1.448300e+02 1.725569e-01 4.611582e+00 2.704778e+00 2.737702e+00 6.809101e+00 4.788074e+00 8.415837e+00 8.790084e+00 1.237217e+01 2.005526e+01 2.358554e+01 1.737962e+01 1.637956e+01 4.671206e-03 4.955367e-01 4.104020e-01 3.753185e-01 8.437744e-01 7.611049e-01 1.121025e+00 1.392869e+00 1.992757e+00 3.266372e+00 4.254545e+00 3.325230e+00 2.878213e+00 4.932742e-04
<GCONST> 1.434503e+02
<STATE> 3
<MEAN> 39
 -7.296308e+00 -2.143337e+00 -7.919404e+00 -9.687167e+00 -9.686491e+00 -8.358987e+00 -5.167476e+00 -5.630690e+00 -1.278113e+00 -3.615628e+00 1.524648e+00 -1.576409e+00 8.665531e-01 -7.226018e-01 -9.019209e-01 -2.907097e-01 4.384285e-01 3.259213e-01 9.342493e-01 -1.405986e-01 -2.461328e-01 5.705656e-02 1.651950e-01 -2.040115e-01 -1.871449e-01 1.163410e-02 4.158939e-02 -2.242976e-02 2.656438e-02 1.742252e-01 -1.699450e-02 -1.734697e-02 -9.101828e-03 2.209035e-02 -7.871696e-04 1.005089e-01 -3.935849e-03 4.669696e-02 -4.371096e-03
<VARIANCE> 39
 8.930750e+01 9.182725e+01 7.747538e+01 9.557463e+01 4.220570e+01 1.376374e+02 9.138266e+01 1.852621e+02 1.056441e+02 2.084713e+02 1.316570e+02 1.719546e+02 1.928631e-02 1.692754e+00 1.677705e+00 1.498502e+00 3.356398e+00 2.161188e+00 5.220174e+00 3.324942e+00 4.876256e+00 3.424573e+00 4.920249e+00 4.409022e+00 5.946234e+00 4.216531e-04 2.785719e-01 2.342358e-01 2.351400e-01 4.672067e-01 4.116934e-01 8.804595e-01 5.676229e-01 8.465342e-01 6.682801e-01 7.801049e-01 6.689918e-01 1.024860e+00 9.561924e-05
<GCONST> 1.132999e+02
<STATE> 4
<MEAN> 39
 -1.231707e+01 -1.289040e+01 -1.764187e+01 2.209367e+00 -1.052735e+01 -3.391132e+00 -1.787526e+00 -5.834505e+00 -3.776456e+00 -1.653127e-01 4.635552e+00 2.811553e-01 9.291219e-01 1.781899e-01 -1.904104e-02 -1.916491e-01 2.381609e-01 -4.309845e-02 -1.325422e-01 -1.277306e-02 2.129943e-01 -2.320365e-02 -1.156397e-01 1.589077e-02 1.129290e-02 -1.110049e-03 1.023451e-02 2.591926e-02 1.174089e-02 -4.614567e-02 1.273435e-03 -9.940476e-03 6.343679e-04 1.310085e-02 6.682598e-03 -2.405913e-02 4.311545e-03 2.364698e-02 -1.315423e-04
<VARIANCE> 39
 3.080583e+01 2.682757e+01 9.152231e+01 3.745449e+01 4.467470e+01 3.626512e+01 5.144832e+01 9.992851e+01 7.405807e+01 2.144950e+02 8.553463e+01 1.182337e+02 2.233744e-03 1.909663e-01 3.514440e-01 5.833963e-01 6.365195e-01 6.457481e-01 8.204680e-01 9.538168e-01 1.083239e+00 1.146328e+00 1.281638e+00 1.252376e+00 1.461666e+00 5.110890e-05 3.236206e-02 5.236385e-02 9.663736e-02 8.453053e-02 9.600028e-02 1.222938e-01 1.370387e-01 1.501848e-01 1.773990e-01 2.036000e-01 1.739570e-01 1.761307e-01 6.213633e-06
<GCONST> 6.376217e+01
<STATE> 5
<MEAN> 39
 -1.827050e+00 -6.304873e+00 -1.484945e+01 -3.994465e+00 -1.049516e+01 -9.668061e+00 -8.217521e+00 -2.617650e+00 -3.247920e+00 -3.958329e+00 -6.417111e-01 3.528690e+00 8.222879e-01 3.363400e-01 3.285141e-01 5.608470e-01 -4.899918e-01 -1.163731e-02 -2.700830e-01 -1.769070e-02 -2.376215e-01 3.088261e-02 2.116215e-01 -7.330865e-02 4.496430e-01 -1.278227e-02 -3.856080e-02 1.428296e-02 1.290953e-03 4.189660e-02 1.185524e-04 2.989223e-02 5.166841e-03 -3.674586e-02 -2.288412e-02 -3.417917e-02 8.451458e-02 4.885302e-02 -9.041497e-04
<VARIANCE> 39
 4.479634e+01 5.969329e+01 9.680744e+01 8.716149e+01 6.964077e+01 6.513968e+01 6.165182e+01 8.850712e+01 7.833328e+01 1.774531e+02 1.202035e+02 1.674066e+02 1.132806e-02 4.084116e-01 9.533020e-01 1.794162e+00 1.680845e+00 1.371888e+00 1.940149e+00 2.765654e+00 2.460284e+00 2.935000e+00 2.771683e+00 3.685824e+00 3.764709e+00 3.288896e-04 5.516252e-02 1.420010e-01 1.708053e-01 2.329236e-01 2.479796e-01 3.666361e-01 4.142112e-01 3.701374e-01 4.522102e-01 4.684502e-01 5.612952e-01 5.958479e-01 2.985589e-05
<GCONST> 9.495284e+01
<STATE> 6
<MEAN> 39
 -8.591557e+00 -6.029669e+00 -1.081922e+01 4.656138e+00 -4.562631e+00 1.782736e+00 1.581081e-01 -1.523291e+00 2.372999e+00 1.024547e-01 3.184208e+00 -6.376339e-01 5.743638e-01 -1.571238e-02 2.314854e-01 -4.279250e-03 -3.766211e-03 8.117133e-02 3.038850e-01 3.780776e-01 3.564232e-01 -1.906736e-02 -1.985238e-01 -2.450345e-02 1.117533e-01 -3.201599e-02 -3.659737e-02 9.916789e-03 1.961364e-02 -3.192287e-04 -6.666190e-03 1.072806e-02 5.020152e-03 -5.049108e-04 1.002072e-03 2.583920e-02 -3.187448e-02 -2.606124e-02 -8.673343e-04
<VARIANCE> 39
 7.990091e+01 1.706497e+02 1.713875e+02 1.071392e+02 9.524911e+01 8.512788e+01 1.090827e+02 1.363790e+02 1.462409e+02 1.338891e+02 1.370440e+02 1.249729e+02 8.728209e-02 1.875097e+00 1.769785e+00 3.390512e+00 2.253864e+00 3.285172e+00 4.459171e+00 6.108281e+00 6.804985e+00 8.800643e+00 9.077902e+00 9.881212e+00 7.453213e+00 2.076614e-03 2.325182e-01 2.459980e-01 4.308824e-01 3.408591e-01 5.332103e-01 7.680373e-01 1.015544e+00 1.154688e+00 1.417745e+00 1.484275e+00 1.778271e+00 1.399327e+00 2.865798e-04
<GCONST> 1.269489e+02
<TRANSP> 7
 0.000000e+00 1.000000e+00 0.000000e+00 0.000000e+00 0.000000e+00 0.000000e+00 0.000000e+00
 0.000000e+00 8.986747e-01 1.013253e-01 0.000000e+00 0.000000e+00 0.000000e+00 0.000000e+00
 0.000000e+00 0.000000e+00 9.019113e-01 9.808876e-02 0.000000e+00 0.000000e+00 0.000000e+00
 0.000000e+00 0.000000e+00 0.000000e+00 9.587331e-01 4.126689e-02 0.000000e+00 0.000000e+00
 0.000000e+00 0.000000e+00 0.000000e+00 0.000000e+00 8.817183e-01 1.182818e-01 0.000000e+00
 0.000000e+00 0.000000e+00 0.000000e+00 0.000000e+00 0.000000e+00 9.343044e-01 6.569564e-02
 0.000000e+00 0.000000e+00 0.000000e+00 0.000000e+00 0.000000e+00 0.000000e+00 0.000000e+00
<ENDHMM>
