~o
<STREAMINFO> 1 39
<VECSIZE> 39<NULLD><MFCC_E_D_A><DIAGC>
~h "YES"
<BEGINHMM>
<NUMSTATES> 7
<STATE> 2
<MEAN> 39
 -7.624920e+00 1.138558e+01 -1.097770e+01 -1.497555e+01 -1.043178e+01 -1.328943e+01 -2.436534e+00 -1.280573e+00 -7.284141e-01 -1.877765e+00 -1.134255e+00 1.882154e+00 7.365887e-01 -4.750731e-01 -2.956613e-01 -1.956499e-01 -1.627999e+00 4.626166e-01 2.025902e-02 6.535491e-01 1.202756e-01 -1.968214e-01 -3.378688e-01 1.221408e-01 7.373922e-02 5.238051e-02 -1.468517e-01 -3.126646e-01 9.795764e-02 1.420114e-01 2.528816e-01 2.836156e-01 -7.009356e-02 -2.179422e-01 -6.914823e-02 -3.183175e-02 1.244814e-01 1.028164e-01 -5.924251e-03
<VARIANCE> 39
 3.859063e+01 8.548920e+01 7.179720e+01 1.011331e+02 6.065210e+01 1.207479e+02 9.739945e+01 7.199852e+01 6.809921e+01 1.251003e+02 1.158879e+02 1.111516e+02 6.837904e-02 1.981573e+00 6.412653e+00 2.545082e+00 4.526503e+00 4.518416e+00 6.410880e+00 4.775211e+00 4.595328e+00 8.568071e+00 8.858755e+00 5.872177e+00 5.601745e+00 3.092512e-03 2.408235e-01 5.097430e-01 3.432341e-01 7.513562e-01 5.550893e-01 8.447737e-01 6.912744e-01 7.685832e-01 1.161419e+00 1.355460e+00 8.257579e-01 6.830767e-01 2.794186e-04
<GCONST> 1.225949e+02
<STATE> 3
<MEAN> 39
 -9.081340e+00 -2.789595e-02 -1.098504e+01 -1.641296e+01 -2.303500e+00 -9.257796e+00 -1.145769e+01 -1.153165e+01 -3.493761e+00 -6.266842e+00 -1.232338e+00 1.027466e+00 9.384621e-01 -2.225400e-01 -7.730531e-01 2.826862e-01 4.559608e-02 2.418391e-01 6.300044e-01 -2.538844e-01 -3.132372e-01 2.500283e-01 -1.215490e-01 4.165068e-01 -5.063641e-02 -8.290425e-04 1.807903e-02 2.430160e-02 8.037804e-03 2.805947e-02 -6.219361e-02 -1.785793e-02 -1.283976e-02 3.873194e-02 -5.756612e-03 -2.362668e-02 -2.600541e-02 7.044197e-04 -1.361450e-03
<VARIANCE> 39
 1.778999e+01 1.077706e+02 4.222609e+01 7.281967e+01 5.792942e+01 1.113043e+02 7.813271e+01 6.570148e+01 4.795001e+01 5.382893e+01 1.067673e+02 8.718566e+01 2.468871e-03 1.693348e-01 1.551855e+00 7.858698e-01 1.455336e+00 1.666901e+00 2.010557e+00 1.645920e+00 1.889922e+00 2.300766e+00 1.911881e+00 2.413332e+00 1.558908e+00 1.393714e-04 2.895544e-02 1.260958e-01 1.299964e-01 1.991273e-01 2.191767e-01 2.507398e-01 2.555009e-01 2.872596e-01 4.679238e-01 3.477005e-01 3.194855e-01 3.138421e-01 1.490885e-05
<GCONST> 8.063336e+01
<STATE> 4
<MEAN> 39
 -1.486325e+01 -8.784163e+00 -5.524498e+00 -1.051064e+01 -2.473710e-01 2.459807e+00 -5.769017e+00 -7.516048e+00 -1.564818e+00 -4.130472e+00 6.082774e+00 2.029553e+00 7.326541e-01 -4.813134e-02 5.025529e-02 1.548502e-01 7.738338e-01 -1.926011e-02 3.923915e-01 8.877592e-02 3.772982e-01 -1.170502e-02 1.817064e-02 -1.379769e-01 -1.648468e-01 -2.472692e-02 -3.106551e-02 1.276891e-01 -1.128206e-02 3.060224e-02 -5.068340e-02 -5.258851e-02 6.144501e-02 1.291294e-01 2.746468e-02 3.202277e-02 -5.895682e-02 -1.643244e-02 -1.859857e-03
<VARIANCE> 39
 5.387918e+01 5.500251e+01 3.824029e+01 9.511295e+01 7.099908e+01 1.100633e+02 8.729070e+01 5.986116e+01 1.152266e+02 7.026453e+01 1.317746e+02 6.047311e+01 5.359570e-02 1.353299e+00 2.739428e+00 1.397335e+00 3.715477e+00 3.881367e+00 3.912919e+00 4.622128e+00 5.344250e+00 4.077101e+00 4.848911e+00 6.584830e+00 4.948409e+00 1.767535e-03 2.132093e-01 3.198699e-01 2.108010e-01 5.414867e-01 7.558523e-01 6.641825e-01 7.906444e-01 9.493638e-01 6.717679e-01 8.049066e-01 1.188775e+00 9.054555e-01 1.863734e-04
<GCONST> 1.145054e+02
<STATE> 5
<MEAN> 39
 -1.553468e+01 -2.167741e+00 -2.480205e+00 -3.383260e+00 -9.600520e-01 2.625921e+00 -2.652141e+00 5.323073e-01 5.901225e-01 -3.024811e+00 1.977778e-01 -2.983033e-01 3.322812e-01 -2.649530e-02 2.542890e-02 7.890333e-02 1.761234e-01 -2.418688e-02 2.333861e-02 4.466678e-03 7.972783e-02 2.482314e-02 1.647593e-01 -1.280188e-02 5.634356e-02 -9.091177e-03 4.579437e-02 -2.160403e-02 5.546748e-03 -2.563524e-02 -1.320513e-02 -7.399086e-03 -3.884358e-02 -8.688032e-02 -1.292320e-02 -1.262426e-02 1.107901e-02 2.192425e-02 1.379234e-03
<VARIANCE> 39
 1.718359e+01 2.055446e+01 1.649278e+01 3.886970e+01 1.991298e+01 2.518631e+01 4.264185e+01 2.632568e+01 2.308102e+01 2.864223e+01 2.234701e+01 2.004107e+01 4.346537e-02 5.058472e-01 6.721716e-01 8.083317e-01 1.701880e+00 1.669233e+00 2.132652e+00 1.964065e+00 2.041241e+00 1.813584e+00 1.934142e+00 1.892144e+00 1.663339e+00 6.741690e-04 6.923671e-02 1.132798e-01 1.435696e-01 3.120620e-01 3.339235e-01 4.245847e-01 3.903174e-01 4.218103e-01 3.484034e-01 3.797320e-01 3.751247e-01 3.718286e-01 8.884123e-05
<GCONST> 7.867673e+01
<STATE> 6
<MEAN> 39
 -2.088317e+01 -1.324364e+00 -1.548428e-01 6.868768e+00 -1.176197e+01 9.316101e-02 1.060553e+00 2.023746e+00 -3.697385e+00 -6.031322e+00 9.569941e+00 2.733911e+00 1.580975e-01 1.565385e-01 -8.003737e-05 5.335789e-02 4.445199e-01 6.627841e-02 4.672231e-02 2.268364e-01 5.601399e-02 3.537430e-01 -1.281247e-01 -3.163245e-01 2.524815e-01 -9.873669e-03 5.555748e-03 -7.187960e-02 -6.111696e-02 6.115717e-02 1.956996e-01 3.088638e-02 -2.563066e-02 1.829492e-02 -3.243217e-02 7.200445e-03 -1.721687e-02 2.642811e-02 6.969527e-04
<VARIANCE> 39
 4.771005e+01 8.922787e+01 4.164873e+01 1.111930e+02 1.104459e+02 1.688193e+02 2.558348e+02 1.266187e+02 1.616510e+02 7.341035e+01 1.376197e+02 9.550408e+01 5.353238e-02 1.200716e+00 2.002066e+00 2.252857e+00 3.155311e+00 9.556611e+00 5.506485e+00 7.722970e+00 6.395028e+00 9.111709e+00 3.910538e+00 9.266848e+00 3.993202e+00 5.116078e-04 1.462186e-01 2.732910e-01 3.526556e-01 5.652864e-01 1.215399e+00 9.158819e-01 9.491471e-01 1.238810e+00 1.536927e+00 8.002157e-01 1.300367e+00 7.375699e-01 7.399785e-05
<GCONST> 1.210287e+02
<TRANSP> 7
 0.000000e+00 1.000000e+00 0.000000e+00 0.000000e+00 0.000000e+00 0.000000e+00 0.000000e+00
 0.000000e+00 8.614435e-01 1.385565e-01 0.000000e+00 0.000000e+00 0.000000e+00 0.000000e+00
 0.000000e+00 0.000000e+00 9.320058e-01 6.799427e-02 0.000000e+00 0.000000e+00 0.000000e+00
 0.000000e+00 0.000000e+00 0.000000e+00 9.372693e-01 6.273074e-02 0.000000e+00 0.000000e+00
 0.000000e+00 0.000000e+00 0.000000e+00 0.000000e+00 9.549322e-01 4.506782e-02 0.000000e+00
 0.000000e+00 0.000000e+00 0.000000e+00 0.000000e+00 0.000000e+00 8.580620e-01 1.419380e-01
 0.000000e+00 0.000000e+00 0.000000e+00 0.000000e+00 0.000000e+00 0.000000e+00 0.000000e+00
<ENDHMM>
